digraph Tree {
node [shape=box, style="filled, rounded", color="black", fontname=helvetica] ;
edge [fontname=helvetica] ;
0 [label="Sex <= 0.5\ngini = 0.48\nsamples = 459\nvalue = [432, 280]\nclass = 1.0", fillcolor="#e581395a"] ;
1 [label="Big <= 0.5\ngini = 0.37\nsamples = 158\nvalue = [62, 187]\nclass = 0.0", fillcolor="#399de5aa"] ;
0 -> 1 [labeldistance=2.5, labelangle=45, headlabel="True"] ;
2 [label="Pclass <= 2.5\ngini = 0.32\nsamples = 142\nvalue = [45, 179]\nclass = 0.0", fillcolor="#399de5bf"] ;
1 -> 2 ;
3 [label="Child <= 0.5\ngini = 0.06\nsamples = 85\nvalue = [4, 131]\nclass = 0.0", fillcolor="#399de5f7"] ;
2 -> 3 ;
4 [label="Pclass <= 1.5\ngini = 0.07\nsamples = 74\nvalue = [4, 114]\nclass = 0.0", fillcolor="#399de5f6"] ;
3 -> 4 ;
5 [label="S <= 0.5\ngini = 0.06\nsamples = 40\nvalue = [2, 58]\nclass = 0.0", fillcolor="#399de5f6"] ;
4 -> 5 ;
6 [label="gini = 0.12\nsamples = 21\nvalue = [2, 29]\nclass = 0.0", fillcolor="#399de5ed"] ;
5 -> 6 ;
7 [label="gini = 0.0\nsamples = 19\nvalue = [0, 29]\nclass = 0.0", fillcolor="#399de5ff"] ;
5 -> 7 ;
8 [label="gini = 0.07\nsamples = 34\nvalue = [2, 56]\nclass = 0.0", fillcolor="#399de5f6"] ;
4 -> 8 ;
9 [label="gini = 0.0\nsamples = 11\nvalue = [0, 17]\nclass = 0.0", fillcolor="#399de5ff"] ;
3 -> 9 ;
10 [label="Fare <= 7.76\ngini = 0.5\nsamples = 57\nvalue = [41, 48]\nclass = 0.0", fillcolor="#399de525"] ;
2 -> 10 ;
11 [label="gini = 0.24\nsamples = 14\nvalue = [3, 19]\nclass = 0.0", fillcolor="#399de5d7"] ;
10 -> 11 ;
12 [label="Fare <= 15.68\ngini = 0.49\nsamples = 43\nvalue = [38, 29]\nclass = 1.0", fillcolor="#e581393c"] ;
10 -> 12 ;
13 [label="S <= 0.5\ngini = 0.45\nsamples = 30\nvalue = [30, 16]\nclass = 1.0", fillcolor="#e5813977"] ;
12 -> 13 ;
14 [label="gini = 0.49\nsamples = 10\nvalue = [6, 8]\nclass = 0.0", fillcolor="#399de540"] ;
13 -> 14 ;
15 [label="Fare <= 8.77\ngini = 0.38\nsamples = 20\nvalue = [24, 8]\nclass = 1.0", fillcolor="#e58139aa"] ;
13 -> 15 ;
16 [label="gini = 0.32\nsamples = 10\nvalue = [16, 4]\nclass = 1.0", fillcolor="#e58139bf"] ;
15 -> 16 ;
17 [label="gini = 0.44\nsamples = 10\nvalue = [8, 4]\nclass = 1.0", fillcolor="#e581397f"] ;
15 -> 17 ;
18 [label="gini = 0.47\nsamples = 13\nvalue = [8, 13]\nclass = 0.0", fillcolor="#399de562"] ;
12 -> 18 ;
19 [label="gini = 0.44\nsamples = 16\nvalue = [17, 8]\nclass = 1.0", fillcolor="#e5813987"] ;
1 -> 19 ;
20 [label="Q <= 0.5\ngini = 0.32\nsamples = 301\nvalue = [370, 93]\nclass = 1.0", fillcolor="#e58139bf"] ;
0 -> 20 [labeldistance=2.5, labelangle=-45, headlabel="False"] ;
21 [label="Fare <= 26.14\ngini = 0.34\nsamples = 277\nvalue = [336, 91]\nclass = 1.0", fillcolor="#e58139ba"] ;
20 -> 21 ;
22 [label="Child <= 0.5\ngini = 0.24\nsamples = 198\nvalue = [259, 42]\nclass = 1.0", fillcolor="#e58139d6"] ;
21 -> 22 ;
23 [label="Small <= 0.5\ngini = 0.19\nsamples = 181\nvalue = [243, 28]\nclass = 1.0", fillcolor="#e58139e2"] ;
22 -> 23 ;
24 [label="Fare <= 7.91\ngini = 0.19\nsamples = 157\nvalue = [213, 26]\nclass = 1.0", fillcolor="#e58139e0"] ;
23 -> 24 ;
25 [label="Fare <= 7.8\ngini = 0.12\nsamples = 81\nvalue = [114, 8]\nclass = 1.0", fillcolor="#e58139ed"] ;
24 -> 25 ;
26 [label="gini = 0.17\nsamples = 53\nvalue = [70, 7]\nclass = 1.0", fillcolor="#e58139e6"] ;
25 -> 26 ;
27 [label="gini = 0.04\nsamples = 28\nvalue = [44, 1]\nclass = 1.0", fillcolor="#e58139f9"] ;
25 -> 27 ;
28 [label="Fare <= 11.0\ngini = 0.26\nsamples = 76\nvalue = [99, 18]\nclass = 1.0", fillcolor="#e58139d1"] ;
24 -> 28 ;
29 [label="gini = 0.36\nsamples = 43\nvalue = [52, 16]\nclass = 1.0", fillcolor="#e58139b1"] ;
28 -> 29 ;
30 [label="gini = 0.08\nsamples = 33\nvalue = [47, 2]\nclass = 1.0", fillcolor="#e58139f4"] ;
28 -> 30 ;
31 [label="Fare <= 15.03\ngini = 0.12\nsamples = 24\nvalue = [30, 2]\nclass = 1.0", fillcolor="#e58139ee"] ;
23 -> 31 ;
32 [label="gini = 0.26\nsamples = 10\nvalue = [11, 2]\nclass = 1.0", fillcolor="#e58139d1"] ;
31 -> 32 ;
33 [label="gini = 0.0\nsamples = 14\nvalue = [19, 0]\nclass = 1.0", fillcolor="#e58139ff"] ;
31 -> 33 ;
34 [label="gini = 0.5\nsamples = 17\nvalue = [16, 14]\nclass = 1.0", fillcolor="#e5813920"] ;
22 -> 34 ;
35 [label="gini = 0.48\nsamples = 79\nvalue = [77, 49]\nclass = 1.0", fillcolor="#e581395d"] ;
21 -> 35 ;
36 [label="gini = 0.1\nsamples = 24\nvalue = [34, 2]\nclass = 1.0", fillcolor="#e58139f0"] ;
20 -> 36 ;
}